{"weights": [[[1.1141416165428026, -0.2606383132842747], [1.4972703115811594, -1.557518696047519], [0.9788993296181393, 1.7607068061007787], [0.4847666389595442, -0.14788105423685258], [-1.4048106667450555, -0.6545478105707311], [-1.3779129015501008, -0.24260591389137648], [-1.1425747706657055, 0.7452131370871447], [0.6681780835117253, -0.8967461491560931], [1.0967507900607834, 0.24164671126813475], [-0.36703967817834154, -2.1989477573650924], [1.4187293671884702, 0.220794135881261], [0.792599247036794, -0.22359010193329656], [-0.6966940679337363, -0.9177179250805804], [-1.4843714783908153, 1.8685108094985705], [1.5103310768270937, 0.11873281691289546], [0.5133011758694358, -0.995439724288486], [1.6986292426041822, 1.3466311691757231], [0.7096278945650034, -0.43979396931311887], [-0.1792264856391186, -1.2863513480063715], [1.4167517622322463, -0.18135501414259472], [-0.03896896984565654, -0.6005654881536746], [1.2048960016449275, 0.9622657455672121], [0.8611704325943726, 1.962442369940922], [-1.156852607375972, 0.34172382960923886], [-0.17899822026765516, 0.011913266092212261], [0.1107811270378912, -0.7170067140867346], [-1.5930694306506155, -0.9649950320267592], [0.7777655788683718, 0.5147422038207792], [1.4314571628680162, 0.3681115581914629], [0.4516735145504875, 0.29364188942075836], [-1.0826926970928505, -0.5800717566463887], [0.8511303118158227, 1.1710123348617656], [1.2400845755803447, -0.5071225784262822], [-1.0514928690170875, -0.35738287433319654], [-0.10396249457736424, 0.4114660378850203], [-1.4391161072057674, 0.9393448807931111], [-0.06189909908224174, -0.5332073562496522], [1.431228106929641, 0.33655721087218254], [-0.25367318064333283, -0.7143121651796676], [-1.3183987961298163, -0.4897581170515432], [1.8286910868141253, -2.38649515544051], [-2.6569105031874605, 1.6921259672114026], [-0.25403075637976125, 0.7520669794001821], [-0.88091650981426, -0.2529336094992539], [1.2706284919052857, -1.9099036908134193], [-0.8543997490119514, -1.0401894130744407], [0.11468226366088101, 0.38851355256211373], [0.4192221719618445, -0.1111398311394198], [0.09938128498787084, -0.5850030857362075], [-0.03935428280427161, -0.37912617958568473]], [[-1.089068431177358, 0.49680712866203364, 2.5917751383618794, 1.4786017758686387, -1.3252745787809466, 1.6876053609760833, 0.4181698322420116, 1.5270720951119745, 0.3296771708447782, 0.31328539618874035, 0.3482797951144915, 0.3203020557903754, 0.392968354289406, 0.2874613857340293, -0.5823406645674917, -0.9365346197452488, -1.3174142003658789, 0.5623964723787158, 0.6900985217591543, -0.776667343381877, -0.8298794277426144, 0.8513687695053512, -1.3720100455212845, -1.4043819648098723, 0.6072167889351935, -1.4592778243852629, 0.24254732571256618, -0.243151136891996, 1.0854655321365185, 0.9633823018735399, -0.19867384876013267, -1.3920750563226472, 0.12132090451853794, -0.1285573816271401, 0.6547931586732724, 0.1830996062976941, 0.5603572444748163, 0.8546438961212782, -0.35109476656350125, 0.6317961412608465, -1.5790329157339467, -0.39407495158301364, 0.14611440911084994, -0.2754555355819104, 0.06264252878917294, 0.09402042733728436, 0.2431920885671059, -0.9675836739194131, -0.7329952444770298, -0.6312080383732177], [0.8583462432892383, 0.4941414108737948, 0.27955961801315005, -0.364882532846094, 0.40370167671634244, 2.191553338479367, -1.3820350373706842, 0.928269360727496, 0.640308864156681, 0.6420377230605633, -0.9512957574333251, 0.30865368500768897, 0.8736566330181532, 0.3424905573821364, -2.012394609928476, 2.12401778832501, -1.5170668301098564, -0.33777701329464754, -0.6431003230398973, -0.8030605269371248, 1.5489933345173719, -0.979916704220423, -0.8291367423227552, -0.6906865309946811, 0.6965747421581482, 0.3243520430678652, -1.2818095272465366, 0.0013737451847274994, -0.4024334175531265, 0.8295839658385307, 0.7186788777393588, 0.004974510967013908, -1.619269441990647, -1.5103792438004948, -0.4265524514658387, 1.2162876646348524, -0.9193923785282417, 0.7682075923949994, -0.15182369788325104, -0.5328558091883292, 1.0905255123164534, 0.26195859653556164, -0.2553350868438057, -0.12975637815660104, 0.9592174203773591, -1.2027177064497987, 1.187356816154605, -1.7911498612801635, 0.9377128109399464, 2.4525940150864143]]], "biases": [[[-0.1762440127055878], [0.18940532114130165], [0.8267471802513613], [-0.02633505866885234], [-0.6524994181480014], [-0.10533938225059161], [0.2195019232374457], [0.5973953955137313], [0.10023789242309242], [-1.0999466757371321], [-0.25530538946802755], [0.4053114195663248], [0.16266395313611715], [1.0411993467397562], [0.22432418351013456], [0.691117052115163], [-0.8655435124425842], [-1.3862594357663125], [-0.23668898982516454], [-0.7570420591833745], [1.3156824440719734], [-0.977385899273919], [-0.35903257599275434], [0.11600587057032977], [-0.35518397225128195], [-0.445552736274136], [-0.04909954729676871], [-0.43159677021377585], [-1.0887509907317288], [-2.3108804287247904], [-1.862364195048406], [0.23470867362533415], [-0.8953365610792124], [-0.5408345249430249], [-0.3976231311885716], [0.021642776632237768], [0.17120854129439106], [-0.5733092723417357], [-0.33839211004876274], [-0.002644221138457485], [1.4378085611882943], [1.364953913359811], [2.691151628751535], [0.6760650348315453], [-1.0658207064915952], [0.1318453131060923], [0.1719489841478367], [0.092150944334271], [1.0340079786272434], [-0.14946025128991314]], [[-0.18531270493067992], [3.1883349422047984]]], "sizes": [2, 50, 2]}